0.9920058316
-0.0001484721
-0.0000292311
0.0293894057
-0.0266996452
-0.0040154310
0.0000941150
-0.0018024168
-0.0191585182
-0.0013940787
-0.0007223863
0.9991272748
-0.0017097005
-0.0020183799
-0.0000290219
-0.0235101739
-0.0200732529
-0.0003275866
0.9969725687
0.9970262453
1.8817130159
-0.0014582944
-0.0099160308
0.9998998944
-0.0002676053
2.0644566410
-0.0489193864
-0.0016531822
0.0000495546
-0.0018502197
-0.0198374653
-0.0030355937
-0.0029706160
-0.0000457051
-0.0017151295
-0.0032780748
-0.0000148295
-0.0237805676
-0.0190678428
-0.0000617577
-0.0276985387
-0.0068366749
1.8297303817
0.9990947987
-0.0025610422
-0.0015033520
0.9912291843
1.0649098488
0.9873152975
0.9975795509
0.9942824334
0.0000400091
0.0001988962
-0.0002224834
0.0010095247
-0.0006073704
-0.0000133329
-0.0021893404
-0.0002017317
-0.0047286545
-0.0184181660
-0.0002263978
-0.0065083011
-0.0060201125
-0.0667471534
-0.0003654020
-0.0005127305
-0.0000248401
-0.0005565457
-0.5920492195
0.0059487038
-0.0000036940
-0.0000900554
0.9995479611
0.9998051556
1.0004865323
1.0008044181
-0.0000080741
0.9999809508
0.0000096420
0.0000059108
0.0006685343
0.0001852282
-0.0000021415
0.0077660242
0.0006728993
-0.0000741094
-0.0002133003
-0.0063797108
-0.0000710161
-0.0000858411
0.2413508440
-0.0253793122
-0.0031876199
0.0000987566
-0.0000351422
-0.0001785473
-0.0009835940
-0.0005044310
-0.0004826450
-0.0004444469
0.9985053205
0.9999845523
0.9966161489
0.9971080962
0.9999326094
-0.0049115713
-0.0049039671
-0.0766383258
-0.0016254402
