0.23    0.28    -0.15   0.14    0.13    0.43    0.08    0.34    -0.08   0.27    -0.17   -0.27   -0.21   0.06    0.05    0.18    -0.15   0.42    0.25    0.16    -0.07   -0.21   -0.01   0.05    0.10   
0.30    0.51    0.39    0.44    0.34    0.49    0.51    0.47    0.45    0.48    0.39    0.39    0.43    0.29    0.39    0.51    0.52    0.25    0.48    0.44    0.43    0.46    0.44    0.44    0.43   
-0.10   0.44    0.22    0.52    0.17    0.17    0.15    0.27    0.10    0.32    0.16    0.18    -0.05   0.07    0.28    0.47    0.26    0.05    0.10    0.24    0.14    0.14    0.01    0.18    0.21   
-0.60   1.14    0.09    -0.07   -0.04   -0.03   0.31    0.85    -0.23   0.22    -0.16   0.15    -0.54   0.12    -0.19   0.41    -0.31   0.50    0.81    0.20    -0.35   -0.25   0.13    -0.03   0.09   
-0.27   0.35    -0.21   0.08    -0.14   -0.18   -0.04   -0.13   -0.17   -0.17   -0.37   -0.15   -0.25   0.00    -0.19   0.09    -0.16   -0.25   -0.05   -0.10   -0.18   -0.23   -0.13   -0.23   -0.15  
0.07    0.12    0.26    0.21    0.30    0.27    0.39    0.26    0.45    0.34    0.27    0.30    0.32    0.20    0.24    0.34    0.34    0.13    0.29    0.23    0.31    0.34    0.33    0.49    0.29   
0.09    -0.01   -0.22   0.28    0.17    -0.30   -0.05   -0.00   -0.18   -0.19   -0.05   -0.32   -0.52   0.28    -0.14   0.03    -0.29   -0.27   -0.13   -0.03   0.18    -0.42   -0.30   -0.17   -0.12  
0.80    0.89    0.78    0.80    0.77    0.77    0.79    0.81    0.74    0.78    0.74    0.78    0.74    0.76    0.78    0.77    0.80    0.77    0.77    0.82    0.80    0.79    0.78    0.79    0.78   
0.96    1.03    0.92    0.95    0.91    0.91    0.93    0.95    0.89    0.92    0.88    0.92    0.89    0.91    0.92    0.92    0.95    0.91    0.91    0.96    0.94    0.93    0.93    0.93    0.93   
-0.42   -0.39   -0.23   -0.14   -0.17   -0.34   -0.28   -0.23   -0.42   -0.23   -0.10   -0.16   -0.29   -0.17   -0.15   -0.23   -0.31   0.02    -0.08   -0.18   -0.16   -0.20   -0.23   -0.20   -0.23  
0.58    0.71    0.57    0.60    0.57    0.57    0.59    0.63    0.54    0.58    0.53    0.58    0.54    0.55    0.57    0.58    0.61    0.56    0.57    0.62    0.59    0.59    0.58    0.59    0.58   
-0.31   -0.81   -0.24   -0.40   0.43    0.32    -0.21   0.40    0.66    0.02    -0.45   0.10    -0.38   -0.72   -0.37   -0.58   -0.23   1.10    -0.03   0.32    0.36    -0.63   0.35    -0.02   0.06   
0.14    -0.02   0.17    -0.25   -0.04   0.16    0.22    0.42    0.13    0.33    0.11    0.05    0.03    0.06    0.22    0.16    -0.28   0.43    0.20    0.33    0.05    0.06    0.05    0.15    0.14   
0.87    0.96    0.84    0.87    0.84    0.83    0.86    0.88    0.81    0.84    0.81    0.84    0.81    0.83    0.84    0.84    0.87    0.84    0.84    0.89    0.86    0.86    0.85    0.85    0.85   
-1.11   -0.66   -0.83   -0.88   -0.88   -0.87   -0.70   -0.74   -0.89   -0.85   -0.94   -0.83   -0.93   -0.90   -0.88   -0.91   -0.85   -0.87   -0.81   -0.80   -0.85   -0.86   -0.86   -0.85   -0.86  
-0.83   -0.83   -0.83   -0.83   -0.83   -0.83   -0.83   -0.83   -0.83   -0.83   -0.83   -0.83   -0.83   -0.83   -0.83   -0.83   -0.83   -0.83   -0.83   -0.83   -0.83   -0.83   -0.83   -0.83   -0.83  
-0.96   -0.96   -0.96   -0.96   -0.96   -0.96   -0.96   -0.96   -0.96   -0.96   -0.96   -0.96   -0.96   -0.96   -0.96   -0.96   -0.96   -0.96   -0.96   -0.96   -0.96   -0.96   -0.96   -0.96   -0.96  
0.67    0.67    0.67    0.67    0.67    0.67    0.67    0.67    0.67    0.67    0.67    0.67    0.67    0.67    0.67    0.67    0.67    0.67    0.67    0.67    0.67    0.67    0.67    0.67    0.67   
0.56    0.56    0.56    0.56    0.56    0.56    0.56    0.56    0.56    0.56    0.56    0.56    0.56    0.56    0.56    0.56    0.56    0.56    0.56    0.56    0.56    0.56    0.56    0.56    0.56   
0.74    0.74    0.74    0.74    0.74    0.74    0.74    0.74    0.74    0.74    0.74    0.74    0.74    0.74    0.74    0.74    0.74    0.74    0.74    0.74    0.74    0.74    0.74    0.74    0.74   
0.96    0.96    0.96    0.96    0.96    0.96    0.96    0.96    0.96    0.96    0.96    0.96    0.96    0.96    0.96    0.96    0.96    0.96    0.96    0.96    0.96    0.96    0.96    0.96    0.96   
0.60    0.60    0.60    0.60    0.60    0.60    0.60    0.60    0.60    0.60    0.60    0.60    0.60    0.60    0.60    0.60    0.60    0.60    0.60    0.60    0.60    0.60    0.60    0.60    0.60   
-0.08   -0.08   -0.08   -0.08   -0.08   -0.08   -0.08   -0.08   -0.08   -0.08   -0.08   -0.08   -0.08   -0.08   -0.08   -0.08   -0.08   -0.08   -0.08   -0.08   -0.08   -0.08   -0.08   -0.08   -0.08  
0.56    0.56    0.56    0.56    0.56    0.56    0.56    0.56    0.56    0.56    0.56    0.56    0.56    0.56    0.56    0.56    0.56    0.56    0.56    0.56    0.56    0.56    0.56    0.56    0.56   
-0.76   -0.76   -0.76   -0.76   -0.76   -0.76   -0.76   -0.76   -0.76   -0.76   -0.76   -0.76   -0.76   -0.76   -0.76   -0.76   -0.76   -0.76   -0.76   -0.76   -0.76   -0.76   -0.76   -0.76   -0.76  
0.81    -0.11   0.40    0.40    0.12    -0.22   0.21    -0.03   -0.04   -0.01   -0.03   0.35    0.56    -0.03   -0.01   0.28    0.28    0.28    0.28    0.28    0.28    0.28    0.28    0.28    0.28   
-0.83   -0.63   -0.93   -0.76   -0.31   -0.58   -0.16   -0.64   -0.64   -0.32   -0.64   -0.57   -0.76   -0.64   -0.06   -0.71   -0.71   -0.71   -0.71   -0.71   -0.71   -0.71   -0.71   -0.71   -0.71  
0.91    0.88    0.90    0.88    0.92    0.87    0.83    0.89    0.89    0.76    0.89    0.81    0.88    0.89    0.85    0.89    0.89    0.89    0.89    0.89    0.89    0.89    0.89    0.89    0.89   
-2.08   0.29    -1.01   -0.59   -0.07   0.70    -0.76   0.14    0.12    0.61    0.14    -0.01   -0.28   0.13    0.61    0.04    0.04    0.04    0.04    0.04    0.04    0.04    0.04    0.04    0.04   
-2.05   0.52    -1.08   -1.00   0.26    0.82    0.02    0.37    0.36    0.38    0.38    -0.93   -0.74   0.36    0.89    -0.17   -0.17   -0.17   -0.17   -0.17   -0.17   -0.17   -0.17   -0.17   -0.17  
-1.70   0.40    -1.25   -0.90   -0.09   0.64    -0.33   0.32    0.31    0.43    0.32    -0.05   -0.67   0.31    0.52    -0.47   -0.47   -0.47   -0.47   -0.47   -0.47   -0.47   -0.47   -0.47   -0.47  
0.80    0.45    0.75    0.39    0.38    0.36    0.49    0.49    0.49    -0.01   0.49    0.07    0.56    0.49    0.13    0.55    0.55    0.55    0.55    0.55    0.55    0.55    0.55    0.55    0.55   
-1.65   0.50    0.12    -0.56   0.62    0.61    0.79    0.34    0.35    -0.05   0.35    -2.10   -1.15   0.34    0.87    -0.09   -0.09   -0.09   -0.09   -0.09   -0.09   -0.09   -0.09   -0.09   -0.09  
-0.54   0.05    -0.90   0.62    -0.47   0.50    -1.55   0.10    0.09    0.76    0.11    2.52    2.51    0.09    -0.01   0.14    0.14    0.14    0.14    0.14    0.14    0.14    0.14    0.14    0.14   
-0.98   -0.95   -0.98   -0.95   -0.82   -0.94   -0.56   -0.95   -0.95   -0.82   -0.95   -0.93   -0.99   -0.95   -0.63   -0.96   -0.96   -0.96   -0.96   -0.96   -0.96   -0.96   -0.96   -0.96   -0.96  
0.44    -0.39   -1.18   -0.32   -0.81   -0.21   -0.89   -0.22   -0.23   0.63    -0.22   1.75    0.96    -0.22   -0.25   0.24    0.24    0.24    0.24    0.24    0.24    0.24    0.24    0.24    0.24   
0.39    -0.38   -1.35   -0.32   -0.86   -0.16   -1.00   -0.21   -0.23   0.69    -0.21   1.96    1.07    -0.22   -0.29   0.22    0.22    0.22    0.22    0.22    0.22    0.22    0.22    0.22    0.22   
0.43    -0.39   -1.21   -0.32   -0.82   -0.20   -0.91   -0.22   -0.23   0.64    -0.22   1.78    0.98    -0.22   -0.26   0.23    0.23    0.23    0.23    0.23    0.23    0.23    0.23    0.23    0.23   
0.91    0.88    0.90    0.87    0.92    0.87    0.83    0.88    0.88    0.76    0.88    0.81    0.88    0.88    0.85    0.89    0.89    0.89    0.89    0.89    0.89    0.89    0.89    0.89    0.89   
1.12    0.03    0.81    0.26    0.19    -0.18   0.58    0.15    0.16    -0.39   0.16    -0.28   0.50    0.16    -0.19   0.36    0.36    0.36    0.36    0.36    0.36    0.36    0.36    0.36    0.36   
-0.28   -0.28   -0.28   -0.28   -0.28   -0.28   -0.28   -0.28   -0.28   -0.28   -0.28   -0.28   -0.28   -0.28   -0.28   -0.28   -0.28   -0.28   -0.28   -0.28   -0.28   -0.28   -0.28   -0.28   -0.28  
-0.13   -0.13   -0.13   -0.13   -0.13   -0.13   -0.13   -0.13   -0.13   -0.13   -0.13   -0.13   -0.13   -0.13   -0.13   -0.13   -0.13   -0.13   -0.13   -0.13   -0.13   -0.13   -0.13   -0.13   -0.13  
0.40    0.40    0.40    0.40    0.40    0.40    0.40    0.40    0.40    0.40    0.40    0.40    0.40    0.40    0.40    0.40    0.40    0.40    0.40    0.40    0.40    0.40    0.40    0.40    0.40   
-0.88   -0.88   -0.88   -0.88   -0.88   -0.88   -0.88   -0.88   -0.88   -0.88   -0.88   -0.88   -0.88   -0.88   -0.88   -0.88   -0.88   -0.88   -0.88   -0.88   -0.88   -0.88   -0.88   -0.88   -0.88  
0.33    0.33    0.33    0.33    0.33    0.33    0.33    0.33    0.33    0.33    0.33    0.33    0.33    0.33    0.33    0.33    0.33    0.33    0.33    0.33    0.33    0.33    0.33    0.33    0.33   
0.34    0.34    0.34    0.34    0.34    0.34    0.34    0.34    0.34    0.34    0.34    0.34    0.34    0.34    0.34    0.34    0.34    0.34    0.34    0.34    0.34    0.34    0.34    0.34    0.34   
-0.58   -0.58   -0.58   -0.58   -0.58   -0.58   -0.58   -0.58   -0.58   -0.58   -0.58   -0.58   -0.58   -0.58   -0.58   -0.58   -0.58   -0.58   -0.58   -0.58   -0.58   -0.58   -0.58   -0.58   -0.58  
-0.74   -0.74   -0.74   -0.74   -0.74   -0.74   -0.74   -0.74   -0.74   -0.74   -0.74   -0.74   -0.74   -0.74   -0.74   -0.74   -0.74   -0.74   -0.74   -0.74   -0.74   -0.74   -0.74   -0.74   -0.74  
-0.37   -0.37   -0.37   -0.37   -0.37   -0.37   -0.37   -0.37   -0.37   -0.37   -0.37   -0.37   -0.37   -0.37   -0.37   -0.37   -0.37   -0.37   -0.37   -0.37   -0.37   -0.37   -0.37   -0.37   -0.37  
-0.27   -0.27   -0.27   -0.27   -0.27   -0.27   -0.27   -0.27   -0.27   -0.27   -0.27   -0.27   -0.27   -0.27   -0.27   -0.27   -0.27   -0.27   -0.27   -0.27   -0.27   -0.27   -0.27   -0.27   -0.27  
-1.60   1.94    -0.87   1.45    2.97    2.43    -1.20   2.43    -0.85   1.67    -1.34   -1.32   -1.34   -0.87   -1.35   0.14    0.14    0.14    0.14    0.14    0.14    0.14    0.14    0.14    0.14   
0.07    -0.74   0.50    -1.38   -0.60   -1.50   0.55    1.02    -4.03   -0.66   -1.36   -1.64   -1.40   0.50    0.53    -0.12   -0.12   -0.12   -0.12   -0.12   -0.12   -0.12   -0.12   -0.12   -0.12  
-1.02   0.28    -1.16   1.59    0.76    1.29    -1.51   -0.60   1.33    0.14    0.94    1.18    0.97    -1.16   -2.02   0.98    0.98    0.98    0.98    0.98    0.98    0.98    0.98    0.98    0.98   
0.09    -1.00   -0.21   -0.64   -1.06   -1.23   -0.05   -0.73   2.27    -0.88   -1.44   -1.55   -1.46   -0.21   0.08    -0.80   -0.80   -0.80   -0.80   -0.80   -0.80   -0.80   -0.80   -0.80   -0.80  
0.40    -0.95   -0.54   -2.04   -3.21   -1.61   -0.27   -3.80   1.05    -0.77   1.24    1.38    1.25    -0.54   0.10    -0.58   -0.58   -0.58   -0.58   -0.58   -0.58   -0.58   -0.58   -0.58   -0.58  
-0.68   -0.68   -0.68   -0.68   -0.68   -0.68   -0.68   -0.68   -0.68   -0.68   -0.68   -0.68   -0.68   -0.68   -0.68   -0.68   -0.68   -0.68   -0.68   -0.68   -0.68   -0.68   -0.68   -0.68   -0.68  
0.31    0.31    0.31    0.31    0.31    0.31    0.31    0.31    0.31    0.31    0.31    0.31    0.31    0.31    0.31    0.31    0.31    0.31    0.31    0.31    0.31    0.31    0.31    0.31    0.31   
-0.49   -0.49   -0.49   -0.49   -0.49   -0.49   -0.49   -0.49   -0.49   -0.49   -0.49   -0.49   -0.49   -0.49   -0.49   -0.49   -0.49   -0.49   -0.49   -0.49   -0.49   -0.49   -0.49   -0.49   -0.49  
-0.07   -0.07   -0.07   -0.07   -0.07   -0.07   -0.07   -0.07   -0.07   -0.07   -0.07   -0.07   -0.07   -0.07   -0.07   -0.07   -0.07   -0.07   -0.07   -0.07   -0.07   -0.07   -0.07   -0.07   -0.07  
-0.51   -0.51   -0.51   -0.51   -0.51   -0.51   -0.51   -0.51   -0.51   -0.51   -0.51   -0.51   -0.51   -0.51   -0.51   -0.51   -0.51   -0.51   -0.51   -0.51   -0.51   -0.51   -0.51   -0.51   -0.51  
-0.68   -0.68   -0.68   -0.68   -0.68   -0.68   -0.68   -0.68   -0.68   -0.68   -0.68   -0.68   -0.68   -0.68   -0.68   -0.68   -0.68   -0.68   -0.68   -0.68   -0.68   -0.68   -0.68   -0.68   -0.68  
-0.78   -0.78   -0.78   -0.78   -0.78   -0.78   -0.78   -0.78   -0.78   -0.78   -0.78   -0.78   -0.78   -0.78   -0.78   -0.78   -0.78   -0.78   -0.78   -0.78   -0.78   -0.78   -0.78   -0.78   -0.78  
0.31    0.31    0.31    0.31    0.31    0.31    0.31    0.31    0.31    0.31    0.31    0.31    0.31    0.31    0.31    0.31    0.31    0.31    0.31    0.31    0.31    0.31    0.31    0.31    0.31   
-0.72   -0.72   -0.72   -0.72   -0.72   -0.72   -0.72   -0.72   -0.72   -0.72   -0.72   -0.72   -0.72   -0.72   -0.72   -0.72   -0.72   -0.72   -0.72   -0.72   -0.72   -0.72   -0.72   -0.72   -0.72  
-0.61   -0.61   -0.61   -0.61   -0.61   -0.61   -0.61   -0.61   -0.61   -0.61   -0.61   -0.61   -0.61   -0.61   -0.61   -0.61   -0.61   -0.61   -0.61   -0.61   -0.61   -0.61   -0.61   -0.61   -0.61  
-0.26   -0.26   -0.26   -0.26   -0.26   -0.26   -0.26   -0.26   -0.26   -0.26   -0.26   -0.26   -0.26   -0.26   -0.26   -0.26   -0.26   -0.26   -0.26   -0.26   -0.26   -0.26   -0.26   -0.26   -0.26  
0.64    0.64    0.64    0.64    0.64    0.64    0.64    0.64    0.64    0.64    0.64    0.64    0.64    0.64    0.64    0.64    0.64    0.64    0.64    0.64    0.64    0.64    0.64    0.64    0.64   
-0.81   -0.81   -0.81   -0.81   -0.81   -0.81   -0.81   -0.81   -0.81   -0.81   -0.81   -0.81   -0.81   -0.81   -0.81   -0.81   -0.81   -0.81   -0.81   -0.81   -0.81   -0.81   -0.81   -0.81   -0.81  
0.68    0.68    0.68    0.68    0.68    0.68    0.68    0.68    0.68    0.68    0.68    0.68    0.68    0.68    0.68    0.68    0.68    0.68    0.68    0.68    0.68    0.68    0.68    0.68    0.68   
-0.81   -0.81   -0.81   -0.81   -0.81   -0.81   -0.81   -0.81   -0.81   -0.81   -0.81   -0.81   -0.81   -0.81   -0.81   -0.81   -0.81   -0.81   -0.81   -0.81   -0.81   -0.81   -0.81   -0.81   -0.81  
0.95    0.95    0.95    0.95    0.95    0.95    0.95    0.95    0.95    0.95    0.95    0.95    0.95    0.95    0.95    0.95    0.95    0.95    0.95    0.95    0.95    0.95    0.95    0.95    0.95   
-0.06   -0.06   -0.06   -0.06   -0.06   -0.06   -0.06   -0.06   -0.06   -0.06   -0.06   -0.06   -0.06   -0.06   -0.06   -0.06   -0.06   -0.06   -0.06   -0.06   -0.06   -0.06   -0.06   -0.06   -0.06  
0.95    0.95    0.95    0.95    0.95    0.95    0.95    0.95    0.95    0.95    0.95    0.95    0.95    0.95    0.95    0.95    0.95    0.95    0.95    0.95    0.95    0.95    0.95    0.95    0.95   
0.21    0.21    0.21    0.21    0.21    0.21    0.21    0.21    0.21    0.21    0.21    0.21    0.21    0.21    0.21    0.21    0.21    0.21    0.21    0.21    0.21    0.21    0.21    0.21    0.21   
0.48    0.48    0.48    0.48    0.48    0.48    0.48    0.48    0.48    0.48    0.48    0.48    0.48    0.48    0.48    0.48    0.48    0.48    0.48    0.48    0.48    0.48    0.48    0.48    0.48   
